<?xml version="1.0"?>
<opencv_storage>
<cascade>
  <stageType>BOOST</stageType>
  <featureType>HAAR</featureType>
  <height>24</height>
  <width>24</width>
  <stageParams>
    <boostType>GAB</boostType>
    <minHitRate>9.9500000476837158e-01</minHitRate>
    <maxFalseAlarm>5.0000000000000000e-01</maxFalseAlarm>
    <weightTrimRate>9.4999998807907104e-01</weightTrimRate>
    <maxDepth>1</maxDepth>
    <maxWeakCount>100</maxWeakCount></stageParams>
  <featureParams>
    <maxCatCount>0</maxCatCount>
    <featSize>1</featSize>
    <mode>BASIC</mode></featureParams>
  <stageNum>45</stageNum>
  <stages>
    <!-- stage 0 -->
    <_>
      <maxWeakCount>1</maxWeakCount>
      <stageThreshold>1.</stageThreshold>
      <weakClassifiers>
        <_>
          <internalNodes>
            0 -1 2 -2.1592241525650024e-01</internalNodes>
          <leafValues>
            -1. 1.</leafValues></_></weakClassifiers></_>
    <!-- stage 1 -->
    <_>
      <maxWeakCount>1</maxWeakCount>
      <stageThreshold>1.</stageThreshold>
      <weakClassifiers>
        <_>
          <internalNodes>
            0 -1 25 -5.2438941784203053e-03</internalNodes>
          <leafValues>
            -1. 1.</leafValues></_></weakClassifiers></_>
    <!-- stage 2 -->
    <_>
      <maxWeakCount>2</maxWeakCount>
      <stageThreshold>1.8197052180767059e-01</stageThreshold>
      <weakClassifiers>
        <_>
          <internalNodes>
            0 -1 40 2.3152451962232590e-02</internalNodes>
          <leafValues>
            -7.7777779102325439e-01 1.</leafValues></_>
        <_>
          <internalNodes>
            0 -1 49 1.7185885459184647e-02</internalNodes>
          <leafValues>
            -8.1802946329116821e-01 1.</leafValues></_></weakClassifiers></_>
    <!-- stage 3 -->
    <_>
      <maxWeakCount>1</maxWeakCount>
      <stageThreshold>1.</stageThreshold>
      <weakClassifiers>
        <_>
          <internalNodes>
            0 -1 65 3.1418685102835298e-04</internalNodes>
          <leafValues>
            1. -1.</leafValues></_></weakClassifiers></_>
    <!-- stage 4 -->
    <_>
      <maxWeakCount>2</maxWeakCount>
      <stageThreshold>1.8197052180767059e-01</stageThreshold>
      <weakClassifiers>
        <_>
          <internalNodes>
            0 -1 34 -1.8223735969513655e-03</internalNodes>
          <leafValues>
            -7.7777779102325439e-01 1.</leafValues></_>
        <_>
          <internalNodes>
            0 -1 36 3.7650519516319036e-03</internalNodes>
          <leafValues>
            -8.1802946329116821e-01 1.</leafValues></_></weakClassifiers></_>
    <!-- stage 5 -->
    <_>
      <maxWeakCount>2</maxWeakCount>
      <stageThreshold>1.8197052180767059e-01</stageThreshold>
      <weakClassifiers>
        <_>
          <internalNodes>
            0 -1 5 -4.5867306180298328e-03</internalNodes>
          <leafValues>
            -7.7777779102325439e-01 1.</leafValues></_>
        <_>
          <internalNodes>
            0 -1 47 1.4830669388175011e-02</internalNodes>
          <leafValues>
            -8.1802946329116821e-01 1.</leafValues></_></weakClassifiers></_>
    <!-- stage 6 -->
    <_>
      <maxWeakCount>1</maxWeakCount>
      <stageThreshold>9.1304349899291992e-01</stageThreshold>
      <weakClassifiers>
        <_>
          <internalNodes>
            0 -1 54 2.8076465241611004e-03</internalNodes>
          <leafValues>
            9.1304349899291992e-01 -1.</leafValues></_></weakClassifiers></_>
    <!-- stage 7 -->
    <_>
      <maxWeakCount>2</maxWeakCount>
      <stageThreshold>5.2393943071365356e-02</stageThreshold>
      <weakClassifiers>
        <_>
          <internalNodes>
            0 -1 64 -1.1905343271791935e-02</internalNodes>
          <leafValues>
            1. -7.7777779102325439e-01</leafValues></_>
        <_>
          <internalNodes>
            0 -1 12 5.0279041752219200e-03</internalNodes>
          <leafValues>
            8.3017170429229736e-01 -1.</leafValues></_></weakClassifiers></_>
    <!-- stage 8 -->
    <_>
      <maxWeakCount>2</maxWeakCount>
      <stageThreshold>1.3027861714363098e-01</stageThreshold>
      <weakClassifiers>
        <_>
          <internalNodes>
            0 -1 61 -8.0661164247430861e-05</internalNodes>
          <leafValues>
            -7.7777779102325439e-01 1.</leafValues></_>
        <_>
          <internalNodes>
            0 -1 29 2.0606942474842072e-02</internalNodes>
          <leafValues>
            -7.9470211267471313e-01 9.0805637836456299e-01</leafValues></_></weakClassifiers></_>
    <!-- stage 9 -->
    <_>
      <maxWeakCount>2</maxWeakCount>
      <stageThreshold>2.2222222387790680e-01</stageThreshold>
      <weakClassifiers>
        <_>
          <internalNodes>
            0 -1 66 1.5744370175525546e-03</internalNodes>
          <leafValues>
            -7.7777779102325439e-01 1.</leafValues></_>
        <_>
          <internalNodes>
            0 -1 26 2.1928618662059307e-04</internalNodes>
          <leafValues>
            -6.6641068458557129e-01 1.</leafValues></_></weakClassifiers></_>
    <!-- stage 10 -->
    <_>
      <maxWeakCount>1</maxWeakCount>
      <stageThreshold>9.1304349899291992e-01</stageThreshold>
      <weakClassifiers>
        <_>
          <internalNodes>
            0 -1 74 1.5870004426687956e-03</internalNodes>
          <leafValues>
            9.1304349899291992e-01 -1.</leafValues></_></weakClassifiers></_>
    <!-- stage 11 -->
    <_>
      <maxWeakCount>1</maxWeakCount>
      <stageThreshold>1.</stageThreshold>
      <weakClassifiers>
        <_>
          <internalNodes>
            0 -1 38 7.3653261642903090e-04</internalNodes>
          <leafValues>
            1. -1.</leafValues></_></weakClassifiers></_>
    <!-- stage 12 -->
    <_>
      <maxWeakCount>2</maxWeakCount>
      <stageThreshold>2.8705528378486633e-01</stageThreshold>
      <weakClassifiers>
        <_>
          <internalNodes>
            0 -1 3 -7.0129515370354056e-04</internalNodes>
          <leafValues>
            1. -6.0000002384185791e-01</leafValues></_>
        <_>
          <internalNodes>
            0 -1 6 4.3818198144435883e-02</internalNodes>
          <leafValues>
            1. -7.1294468641281128e-01</leafValues></_></weakClassifiers></_>
    <!-- stage 13 -->
    <_>
      <maxWeakCount>2</maxWeakCount>
      <stageThreshold>1.8197052180767059e-01</stageThreshold>
      <weakClassifiers>
        <_>
          <internalNodes>
            0 -1 7 6.4018098637461662e-03</internalNodes>
          <leafValues>
            1. -7.7777779102325439e-01</leafValues></_>
        <_>
          <internalNodes>
            0 -1 53 -5.8634400367736816e-02</internalNodes>
          <leafValues>
            1. -8.1802946329116821e-01</leafValues></_></weakClassifiers></_>
    <!-- stage 14 -->
    <_>
      <maxWeakCount>2</maxWeakCount>
      <stageThreshold>1.3354302942752838e-01</stageThreshold>
      <weakClassifiers>
        <_>
          <internalNodes>
            0 -1 58 1.1948322877287865e-02</internalNodes>
          <leafValues>
            -7.7777779102325439e-01 1.</leafValues></_>
        <_>
          <internalNodes>
            0 -1 71 -1.1887154541909695e-03</internalNodes>
          <leafValues>
            9.1132080554962158e-01 -1.</leafValues></_></weakClassifiers></_>
    <!-- stage 15 -->
    <_>
      <maxWeakCount>1</maxWeakCount>
      <stageThreshold>9.1304349899291992e-01</stageThreshold>
      <weakClassifiers>
        <_>
          <internalNodes>
            0 -1 48 -1.2459982186555862e-02</internalNodes>
          <leafValues>
            -1. 9.1304349899291992e-01</leafValues></_></weakClassifiers></_>
    <!-- stage 16 -->
    <_>
      <maxWeakCount>2</maxWeakCount>
      <stageThreshold>1.7478281259536743e-01</stageThreshold>
      <weakClassifiers>
        <_>
          <internalNodes>
            0 -1 42 -6.4715580083429813e-04</internalNodes>
          <leafValues>
            1. -6.0000002384185791e-01</leafValues></_>
        <_>
          <internalNodes>
            0 -1 63 -1.2923907488584518e-03</internalNodes>
          <leafValues>
            -8.2521718740463257e-01 9.0184682607650757e-01</leafValues></_></weakClassifiers></_>
    <!-- stage 17 -->
    <_>
      <maxWeakCount>2</maxWeakCount>
      <stageThreshold>1.7478281259536743e-01</stageThreshold>
      <weakClassifiers>
        <_>
          <internalNodes>
            0 -1 72 5.4516270756721497e-04</internalNodes>
          <leafValues>
            -6.0000002384185791e-01 1.</leafValues></_>
        <_>
          <internalNodes>
            0 -1 0 4.6986795961856842e-02</internalNodes>
          <leafValues>
            9.0184682607650757e-01 -8.2521718740463257e-01</leafValues></_></weakClassifiers></_>
    <!-- stage 18 -->
    <_>
      <maxWeakCount>1</maxWeakCount>
      <stageThreshold>9.1304349899291992e-01</stageThreshold>
      <weakClassifiers>
        <_>
          <internalNodes>
            0 -1 57 5.5780680850148201e-04</internalNodes>
          <leafValues>
            9.1304349899291992e-01 -1.</leafValues></_></weakClassifiers></_>
    <!-- stage 19 -->
    <_>
      <maxWeakCount>2</maxWeakCount>
      <stageThreshold>2.8705528378486633e-01</stageThreshold>
      <weakClassifiers>
        <_>
          <internalNodes>
            0 -1 46 -1.4966650633141398e-03</internalNodes>
          <leafValues>
            -6.0000002384185791e-01 1.</leafValues></_>
        <_>
          <internalNodes>
            0 -1 60 4.3227966671111062e-05</internalNodes>
          <leafValues>
            -7.1294468641281128e-01 1.</leafValues></_></weakClassifiers></_>
    <!-- stage 20 -->
    <_>
      <maxWeakCount>1</maxWeakCount>
      <stageThreshold>9.1304349899291992e-01</stageThreshold>
      <weakClassifiers>
        <_>
          <internalNodes>
            0 -1 35 8.8503416627645493e-03</internalNodes>
          <leafValues>
            -1. 9.1304349899291992e-01</leafValues></_></weakClassifiers></_>
    <!-- stage 21 -->
    <_>
      <maxWeakCount>2</maxWeakCount>
      <stageThreshold>1.3354302942752838e-01</stageThreshold>
      <weakClassifiers>
        <_>
          <internalNodes>
            0 -1 39 1.3316890224814415e-02</internalNodes>
          <leafValues>
            1. -7.7777779102325439e-01</leafValues></_>
        <_>
          <internalNodes>
            0 -1 16 1.3588330149650574e-01</internalNodes>
          <leafValues>
            9.1132080554962158e-01 -1.</leafValues></_></weakClassifiers></_>
    <!-- stage 22 -->
    <_>
      <maxWeakCount>1</maxWeakCount>
      <stageThreshold>9.1304349899291992e-01</stageThreshold>
      <weakClassifiers>
        <_>
          <internalNodes>
            0 -1 10 4.6166608808562160e-04</internalNodes>
          <leafValues>
            9.1304349899291992e-01 -1.</leafValues></_></weakClassifiers></_>
    <!-- stage 23 -->
    <_>
      <maxWeakCount>2</maxWeakCount>
      <stageThreshold>1.7478281259536743e-01</stageThreshold>
      <weakClassifiers>
        <_>
          <internalNodes>
            0 -1 1 8.6115837097167969e-02</internalNodes>
          <leafValues>
            1. -6.0000002384185791e-01</leafValues></_>
        <_>
          <internalNodes>
            0 -1 33 4.0901041938923299e-04</internalNodes>
          <leafValues>
            9.0184682607650757e-01 -8.2521718740463257e-01</leafValues></_></weakClassifiers></_>
    <!-- stage 24 -->
    <_>
      <maxWeakCount>2</maxWeakCount>
      <stageThreshold>2.2222222387790680e-01</stageThreshold>
      <weakClassifiers>
        <_>
          <internalNodes>
            0 -1 14 7.0538208819925785e-04</internalNodes>
          <leafValues>
            1. -7.7777779102325439e-01</leafValues></_>
        <_>
          <internalNodes>
            0 -1 76 -5.4708344396203756e-04</internalNodes>
          <leafValues>
            -6.6641068458557129e-01 1.</leafValues></_></weakClassifiers></_>
    <!-- stage 25 -->
    <_>
      <maxWeakCount>2</maxWeakCount>
      <stageThreshold>1.7478281259536743e-01</stageThreshold>
      <weakClassifiers>
        <_>
          <internalNodes>
            0 -1 68 -4.5383400283753872e-03</internalNodes>
          <leafValues>
            1. -6.0000002384185791e-01</leafValues></_>
        <_>
          <internalNodes>
            0 -1 67 -7.0561125176027417e-04</internalNodes>
          <leafValues>
            -8.2521718740463257e-01 9.0184682607650757e-01</leafValues></_></weakClassifiers></_>
    <!-- stage 26 -->
    <_>
      <maxWeakCount>2</maxWeakCount>
      <stageThreshold>1.7478281259536743e-01</stageThreshold>
      <weakClassifiers>
        <_>
          <internalNodes>
            0 -1 19 3.1673307530581951e-03</internalNodes>
          <leafValues>
            -6.0000002384185791e-01 1.</leafValues></_>
        <_>
          <internalNodes>
            0 -1 30 2.3044265806674957e-02</internalNodes>
          <leafValues>
            9.0184682607650757e-01 -8.2521718740463257e-01</leafValues></_></weakClassifiers></_>
    <!-- stage 27 -->
    <_>
      <maxWeakCount>2</maxWeakCount>
      <stageThreshold>1.7478281259536743e-01</stageThreshold>
      <weakClassifiers>
        <_>
          <internalNodes>
            0 -1 37 1.3161724433302879e-02</internalNodes>
          <leafValues>
            1. -6.0000002384185791e-01</leafValues></_>
        <_>
          <internalNodes>
            0 -1 15 9.5313286874443293e-04</internalNodes>
          <leafValues>
            -8.2521718740463257e-01 9.0184682607650757e-01</leafValues></_></weakClassifiers></_>
    <!-- stage 28 -->
    <_>
      <maxWeakCount>2</maxWeakCount>
      <stageThreshold>1.3027861714363098e-01</stageThreshold>
      <weakClassifiers>
        <_>
          <internalNodes>
            0 -1 18 -4.3823372106999159e-04</internalNodes>
          <leafValues>
            -7.7777779102325439e-01 1.</leafValues></_>
        <_>
          <internalNodes>
            0 -1 27 -5.4045021533966064e-04</internalNodes>
          <leafValues>
            -7.9470211267471313e-01 9.0805637836456299e-01</leafValues></_></weakClassifiers></_>
    <!-- stage 29 -->
    <_>
      <maxWeakCount>2</maxWeakCount>
      <stageThreshold>2.5000000000000000e-01</stageThreshold>
      <weakClassifiers>
        <_>
          <internalNodes>
            0 -1 75 -3.3894551452249289e-03</internalNodes>
          <leafValues>
            -7.5000000000000000e-01 9.0909093618392944e-01</leafValues></_>
        <_>
          <internalNodes>
            0 -1 28 8.9198276400566101e-02</internalNodes>
          <leafValues>
            1. -6.5453225374221802e-01</leafValues></_></weakClassifiers></_>
    <!-- stage 30 -->
    <_>
      <maxWeakCount>2</maxWeakCount>
      <stageThreshold>4.4935894012451172e-01</stageThreshold>
      <weakClassifiers>
        <_>
          <internalNodes>
            0 -1 73 3.1302559364121407e-05</internalNodes>
          <leafValues>
            -4.5454546809196472e-01 1.</leafValues></_>
        <_>
          <internalNodes>
            0 -1 11 -8.9942436898127198e-04</internalNodes>
          <leafValues>
            -5.5064105987548828e-01 1.</leafValues></_></weakClassifiers></_>
    <!-- stage 31 -->
    <_>
      <maxWeakCount>2</maxWeakCount>
      <stageThreshold>8.6018420755863190e-02</stageThreshold>
      <weakClassifiers>
        <_>
          <internalNodes>
            0 -1 62 -9.4071105122566223e-03</internalNodes>
          <leafValues>
            -7.5000000000000000e-01 9.0909093618392944e-01</leafValues></_>
        <_>
          <internalNodes>
            0 -1 13 -3.3358555287122726e-02</internalNodes>
          <leafValues>
            -1. 8.3601844310760498e-01</leafValues></_></weakClassifiers></_>
    <!-- stage 32 -->
    <_>
      <maxWeakCount>1</maxWeakCount>
      <stageThreshold>8.3333331346511841e-01</stageThreshold>
      <weakClassifiers>
        <_>
          <internalNodes>
            0 -1 51 -8.0623971298336983e-03</internalNodes>
          <leafValues>
            8.3333331346511841e-01 -1.</leafValues></_></weakClassifiers></_>
    <!-- stage 33 -->
    <_>
      <maxWeakCount>2</maxWeakCount>
      <stageThreshold>2.2222222387790680e-01</stageThreshold>
      <weakClassifiers>
        <_>
          <internalNodes>
            0 -1 45 -1.2977084843441844e-03</internalNodes>
          <leafValues>
            -7.7777779102325439e-01 1.</leafValues></_>
        <_>
          <internalNodes>
            0 -1 23 -5.6254398077726364e-03</internalNodes>
          <leafValues>
            -6.6641068458557129e-01 1.</leafValues></_></weakClassifiers></_>
    <!-- stage 34 -->
    <_>
      <maxWeakCount>2</maxWeakCount>
      <stageThreshold>1.8197052180767059e-01</stageThreshold>
      <weakClassifiers>
        <_>
          <internalNodes>
            0 -1 43 2.9689051210880280e-02</internalNodes>
          <leafValues>
            1. -7.7777779102325439e-01</leafValues></_>
        <_>
          <internalNodes>
            0 -1 50 4.9318387173116207e-03</internalNodes>
          <leafValues>
            1. -8.1802946329116821e-01</leafValues></_></weakClassifiers></_>
    <!-- stage 35 -->
    <_>
      <maxWeakCount>1</maxWeakCount>
      <stageThreshold>8.3333331346511841e-01</stageThreshold>
      <weakClassifiers>
        <_>
          <internalNodes>
            0 -1 21 -1.2665988877415657e-02</internalNodes>
          <leafValues>
            -1. 8.3333331346511841e-01</leafValues></_></weakClassifiers></_>
    <!-- stage 36 -->
    <_>
      <maxWeakCount>2</maxWeakCount>
      <stageThreshold>1.4550548791885376e-01</stageThreshold>
      <weakClassifiers>
        <_>
          <internalNodes>
            0 -1 24 2.8924248181283474e-03</internalNodes>
          <leafValues>
            9.0476191043853760e-01 -5.5555558204650879e-01</leafValues></_>
        <_>
          <internalNodes>
            0 -1 31 4.1051860898733139e-04</internalNodes>
          <leafValues>
            8.9883619546890259e-01 -7.5925642251968384e-01</leafValues></_></weakClassifiers></_>
    <!-- stage 37 -->
    <_>
      <maxWeakCount>2</maxWeakCount>
      <stageThreshold>1.7478281259536743e-01</stageThreshold>
      <weakClassifiers>
        <_>
          <internalNodes>
            0 -1 4 2.4761125445365906e-02</internalNodes>
          <leafValues>
            1. -6.0000002384185791e-01</leafValues></_>
        <_>
          <internalNodes>
            0 -1 69 -6.8116874899715185e-04</internalNodes>
          <leafValues>
            -8.2521718740463257e-01 9.0184682607650757e-01</leafValues></_></weakClassifiers></_>
    <!-- stage 38 -->
    <_>
      <maxWeakCount>2</maxWeakCount>
      <stageThreshold>1.7478281259536743e-01</stageThreshold>
      <weakClassifiers>
        <_>
          <internalNodes>
            0 -1 9 -2.2596774215344340e-04</internalNodes>
          <leafValues>
            -6.0000002384185791e-01 1.</leafValues></_>
        <_>
          <internalNodes>
            0 -1 70 -3.3141148742288351e-03</internalNodes>
          <leafValues>
            -8.2521718740463257e-01 9.0184682607650757e-01</leafValues></_></weakClassifiers></_>
    <!-- stage 39 -->
    <_>
      <maxWeakCount>2</maxWeakCount>
      <stageThreshold>4.0000000596046448e-01</stageThreshold>
      <weakClassifiers>
        <_>
          <internalNodes>
            0 -1 8 -7.3642075061798096e-02</internalNodes>
          <leafValues>
            1. -6.0000002384185791e-01</leafValues></_>
        <_>
          <internalNodes>
            0 -1 41 3.2910122536122799e-04</internalNodes>
          <leafValues>
            1. -5.9824830293655396e-01</leafValues></_></weakClassifiers></_>
    <!-- stage 40 -->
    <_>
      <maxWeakCount>2</maxWeakCount>
      <stageThreshold>4.0000000596046448e-01</stageThreshold>
      <weakClassifiers>
        <_>
          <internalNodes>
            0 -1 52 -6.2073040753602982e-03</internalNodes>
          <leafValues>
            1. -6.0000002384185791e-01</leafValues></_>
        <_>
          <internalNodes>
            0 -1 22 2.7267541736364365e-03</internalNodes>
          <leafValues>
            -5.9824830293655396e-01 1.</leafValues></_></weakClassifiers></_>
    <!-- stage 41 -->
    <_>
      <maxWeakCount>2</maxWeakCount>
      <stageThreshold>1.4550548791885376e-01</stageThreshold>
      <weakClassifiers>
        <_>
          <internalNodes>
            0 -1 17 2.9280453454703093e-03</internalNodes>
          <leafValues>
            -5.5555558204650879e-01 9.0476191043853760e-01</leafValues></_>
        <_>
          <internalNodes>
            0 -1 55 -9.4657197594642639e-02</internalNodes>
          <leafValues>
            -7.5925642251968384e-01 8.9883619546890259e-01</leafValues></_></weakClassifiers></_>
    <!-- stage 42 -->
    <_>
      <maxWeakCount>2</maxWeakCount>
      <stageThreshold>2.5000000000000000e-01</stageThreshold>
      <weakClassifiers>
        <_>
          <internalNodes>
            0 -1 56 4.4113197363913059e-03</internalNodes>
          <leafValues>
            -7.5000000000000000e-01 9.0909093618392944e-01</leafValues></_>
        <_>
          <internalNodes>
            0 -1 44 -1.0588945588096976e-03</internalNodes>
          <leafValues>
            1. -6.5453225374221802e-01</leafValues></_></weakClassifiers></_>
    <!-- stage 43 -->
    <_>
      <maxWeakCount>2</maxWeakCount>
      <stageThreshold>1.4550548791885376e-01</stageThreshold>
      <weakClassifiers>
        <_>
          <internalNodes>
            0 -1 32 8.4746643551625311e-05</internalNodes>
          <leafValues>
            9.0476191043853760e-01 -5.5555558204650879e-01</leafValues></_>
        <_>
          <internalNodes>
            0 -1 60 -4.2392493924126029e-06</internalNodes>
          <leafValues>
            -7.5925642251968384e-01 8.9883619546890259e-01</leafValues></_></weakClassifiers></_>
    <!-- stage 44 -->
    <_>
      <maxWeakCount>2</maxWeakCount>
      <stageThreshold>4.4935894012451172e-01</stageThreshold>
      <weakClassifiers>
        <_>
          <internalNodes>
            0 -1 20 2.9380736872553825e-02</internalNodes>
          <leafValues>
            -4.5454546809196472e-01 1.</leafValues></_>
        <_>
          <internalNodes>
            0 -1 59 -7.4854184640571475e-04</internalNodes>
          <leafValues>
            1. -5.5064105987548828e-01</leafValues></_></weakClassifiers></_></stages>
  <features>
    <_>
      <rects>
        <_>
          0 0 3 16 -1.</_>
        <_>
          0 8 3 8 2.</_></rects>
      <tilted>0</tilted></_>
    <_>
      <rects>
        <_>
          0 0 9 14 -1.</_>
        <_>
          0 7 9 7 2.</_></rects>
      <tilted>0</tilted></_>
    <_>
      <rects>
        <_>
          0 0 17 20 -1.</_>
        <_>
          0 10 17 10 2.</_></rects>
      <tilted>0</tilted></_>
    <_>
      <rects>
        <_>
          0 1 16 2 -1.</_>
        <_>
          0 1 8 1 2.</_>
        <_>
          8 2 8 1 2.</_></rects>
      <tilted>0</tilted></_>
    <_>
      <rects>
        <_>
          0 2 18 4 -1.</_>
        <_>
          0 2 9 2 2.</_>
        <_>
          9 4 9 2 2.</_></rects>
      <tilted>0</tilted></_>
    <_>
      <rects>
        <_>
          0 3 12 1 -1.</_>
        <_>
          4 3 4 1 3.</_></rects>
      <tilted>0</tilted></_>
    <_>
      <rects>
        <_>
          0 5 11 16 -1.</_>
        <_>
          0 13 11 8 2.</_></rects>
      <tilted>0</tilted></_>
    <_>
      <rects>
        <_>
          0 7 16 16 -1.</_>
        <_>
          0 7 8 8 2.</_>
        <_>
          8 15 8 8 2.</_></rects>
      <tilted>0</tilted></_>
    <_>
      <rects>
        <_>
          0 8 19 14 -1.</_>
        <_>
          0 15 19 7 2.</_></rects>
      <tilted>0</tilted></_>
    <_>
      <rects>
        <_>
          0 9 1 3 -1.</_>
        <_>
          0 10 1 1 3.</_></rects>
      <tilted>0</tilted></_>
    <_>
      <rects>
        <_>
          0 11 1 2 -1.</_>
        <_>
          0 12 1 1 2.</_></rects>
      <tilted>0</tilted></_>
    <_>
      <rects>
        <_>
          0 12 3 12 -1.</_>
        <_>
          0 16 3 4 3.</_></rects>
      <tilted>0</tilted></_>
    <_>
      <rects>
        <_>
          0 14 3 10 -1.</_>
        <_>
          0 19 3 5 2.</_></rects>
      <tilted>0</tilted></_>
    <_>
      <rects>
        <_>
          0 15 22 6 -1.</_>
        <_>
          0 15 11 3 2.</_>
        <_>
          11 18 11 3 2.</_></rects>
      <tilted>0</tilted></_>
    <_>
      <rects>
        <_>
          1 1 12 2 -1.</_>
        <_>
          1 1 6 1 2.</_>
        <_>
          7 2 6 1 2.</_></rects>
      <tilted>0</tilted></_>
    <_>
      <rects>
        <_>
          1 2 6 6 -1.</_>
        <_>
          3 2 2 6 3.</_></rects>
      <tilted>0</tilted></_>
    <_>
      <rects>
        <_>
          1 2 18 15 -1.</_>
        <_>
          7 2 6 15 3.</_></rects>
      <tilted>0</tilted></_>
    <_>
      <rects>
        <_>
          1 3 6 5 -1.</_>
        <_>
          3 3 2 5 3.</_></rects>
      <tilted>0</tilted></_>
    <_>
      <rects>
        <_>
          1 4 6 3 -1.</_>
        <_>
          3 4 2 3 3.</_></rects>
      <tilted>0</tilted></_>
    <_>
      <rects>
        <_>
          1 4 6 4 -1.</_>
        <_>
          3 4 2 4 3.</_></rects>
      <tilted>0</tilted></_>
    <_>
      <rects>
        <_>
          1 4 18 9 -1.</_>
        <_>
          7 4 6 9 3.</_></rects>
      <tilted>0</tilted></_>
    <_>
      <rects>
        <_>
          1 5 18 6 -1.</_>
        <_>
          1 5 9 3 2.</_>
        <_>
          10 8 9 3 2.</_></rects>
      <tilted>0</tilted></_>
    <_>
      <rects>
        <_>
          1 12 6 12 -1.</_>
        <_>
          3 12 2 12 3.</_></rects>
      <tilted>0</tilted></_>
    <_>
      <rects>
        <_>
          1 15 6 8 -1.</_>
        <_>
          4 15 3 8 2.</_></rects>
      <tilted>0</tilted></_>
    <_>
      <rects>
        <_>
          1 21 22 2 -1.</_>
        <_>
          1 21 11 1 2.</_>
        <_>
          12 22 11 1 2.</_></rects>
      <tilted>0</tilted></_>
    <_>
      <rects>
        <_>
          3 0 21 8 -1.</_>
        <_>
          3 4 21 4 2.</_></rects>
      <tilted>0</tilted></_>
    <_>
      <rects>
        <_>
          3 2 3 6 -1.</_>
        <_>
          4 2 1 6 3.</_></rects>
      <tilted>0</tilted></_>
    <_>
      <rects>
        <_>
          3 3 3 6 -1.</_>
        <_>
          4 3 1 6 3.</_></rects>
      <tilted>0</tilted></_>
    <_>
      <rects>
        <_>
          3 5 18 14 -1.</_>
        <_>
          9 5 6 14 3.</_></rects>
      <tilted>0</tilted></_>
    <_>
      <rects>
        <_>
          3 7 18 4 -1.</_>
        <_>
          9 7 6 4 3.</_></rects>
      <tilted>0</tilted></_>
    <_>
      <rects>
        <_>
          4 0 8 4 -1.</_>
        <_>
          4 2 8 2 2.</_></rects>
      <tilted>0</tilted></_>
    <_>
      <rects>
        <_>
          5 1 3 4 -1.</_>
        <_>
          6 1 1 4 3.</_></rects>
      <tilted>0</tilted></_>
    <_>
      <rects>
        <_>
          5 2 2 1 -1.</_>
        <_>
          6 2 1 1 2.</_></rects>
      <tilted>0</tilted></_>
    <_>
      <rects>
        <_>
          5 3 3 1 -1.</_>
        <_>
          6 3 1 1 3.</_></rects>
      <tilted>0</tilted></_>
    <_>
      <rects>
        <_>
          5 3 8 8 -1.</_>
        <_>
          5 3 4 4 2.</_>
        <_>
          9 7 4 4 2.</_></rects>
      <tilted>0</tilted></_>
    <_>
      <rects>
        <_>
          5 5 10 7 -1.</_>
        <_>
          10 5 5 7 2.</_></rects>
      <tilted>0</tilted></_>
    <_>
      <rects>
        <_>
          6 6 8 7 -1.</_>
        <_>
          10 6 4 7 2.</_></rects>
      <tilted>0</tilted></_>
    <_>
      <rects>
        <_>
          7 0 10 24 -1.</_>
        <_>
          12 0 5 24 2.</_></rects>
      <tilted>0</tilted></_>
    <_>
      <rects>
        <_>
          7 1 8 2 -1.</_>
        <_>
          7 1 4 1 2.</_>
        <_>
          11 2 4 1 2.</_></rects>
      <tilted>0</tilted></_>
    <_>
      <rects>
        <_>
          7 4 4 11 -1.</_>
        <_>
          9 4 2 11 2.</_></rects>
      <tilted>0</tilted></_>
    <_>
      <rects>
        <_>
          8 0 5 12 -1.</_>
        <_>
          8 6 5 6 2.</_></rects>
      <tilted>0</tilted></_>
    <_>
      <rects>
        <_>
          8 2 2 3 -1.</_>
        <_>
          9 2 1 3 2.</_></rects>
      <tilted>0</tilted></_>
    <_>
      <rects>
        <_>
          8 2 8 1 -1.</_>
        <_>
          12 2 4 1 2.</_></rects>
      <tilted>0</tilted></_>
    <_>
      <rects>
        <_>
          8 3 12 6 -1.</_>
        <_>
          12 3 4 6 3.</_></rects>
      <tilted>0</tilted></_>
    <_>
      <rects>
        <_>
          8 15 9 2 -1.</_>
        <_>
          11 15 3 2 3.</_></rects>
      <tilted>0</tilted></_>
    <_>
      <rects>
        <_>
          8 18 10 3 -1.</_>
        <_>
          8 19 10 1 3.</_></rects>
      <tilted>0</tilted></_>
    <_>
      <rects>
        <_>
          8 19 5 2 -1.</_>
        <_>
          8 20 5 1 2.</_></rects>
      <tilted>0</tilted></_>
    <_>
      <rects>
        <_>
          9 2 3 10 -1.</_>
        <_>
          9 7 3 5 2.</_></rects>
      <tilted>0</tilted></_>
    <_>
      <rects>
        <_>
          9 18 7 4 -1.</_>
        <_>
          9 20 7 2 2.</_></rects>
      <tilted>0</tilted></_>
    <_>
      <rects>
        <_>
          10 0 5 10 -1.</_>
        <_>
          10 5 5 5 2.</_></rects>
      <tilted>0</tilted></_>
    <_>
      <rects>
        <_>
          10 1 6 8 -1.</_>
        <_>
          12 1 2 8 3.</_></rects>
      <tilted>0</tilted></_>
    <_>
      <rects>
        <_>
          10 4 12 16 -1.</_>
        <_>
          16 4 6 16 2.</_></rects>
      <tilted>0</tilted></_>
    <_>
      <rects>
        <_>
          10 4 14 10 -1.</_>
        <_>
          10 4 7 5 2.</_>
        <_>
          17 9 7 5 2.</_></rects>
      <tilted>0</tilted></_>
    <_>
      <rects>
        <_>
          10 4 8 20 -1.</_>
        <_>
          10 14 8 10 2.</_></rects>
      <tilted>0</tilted></_>
    <_>
      <rects>
        <_>
          10 6 3 3 -1.</_>
        <_>
          10 7 3 1 3.</_></rects>
      <tilted>0</tilted></_>
    <_>
      <rects>
        <_>
          10 6 12 9 -1.</_>
        <_>
          16 6 6 9 2.</_></rects>
      <tilted>0</tilted></_>
    <_>
      <rects>
        <_>
          11 0 9 6 -1.</_>
        <_>
          11 3 9 3 2.</_></rects>
      <tilted>0</tilted></_>
    <_>
      <rects>
        <_>
          11 1 4 2 -1.</_>
        <_>
          11 1 2 1 2.</_>
        <_>
          13 2 2 1 2.</_></rects>
      <tilted>0</tilted></_>
    <_>
      <rects>
        <_>
          11 3 2 10 -1.</_>
        <_>
          11 8 2 5 2.</_></rects>
      <tilted>0</tilted></_>
    <_>
      <rects>
        <_>
          11 13 3 3 -1.</_>
        <_>
          12 13 1 3 3.</_></rects>
      <tilted>0</tilted></_>
    <_>
      <rects>
        <_>
          11 17 3 2 -1.</_>
        <_>
          11 18 3 1 2.</_></rects>
      <tilted>0</tilted></_>
    <_>
      <rects>
        <_>
          11 17 3 3 -1.</_>
        <_>
          11 18 3 1 3.</_></rects>
      <tilted>0</tilted></_>
    <_>
      <rects>
        <_>
          11 17 13 6 -1.</_>
        <_>
          11 19 13 2 3.</_></rects>
      <tilted>0</tilted></_>
    <_>
      <rects>
        <_>
          13 5 3 6 -1.</_>
        <_>
          14 5 1 6 3.</_></rects>
      <tilted>0</tilted></_>
    <_>
      <rects>
        <_>
          13 5 2 18 -1.</_>
        <_>
          13 14 2 9 2.</_></rects>
      <tilted>0</tilted></_>
    <_>
      <rects>
        <_>
          15 3 4 17 -1.</_>
        <_>
          17 3 2 17 2.</_></rects>
      <tilted>0</tilted></_>
    <_>
      <rects>
        <_>
          16 2 4 4 -1.</_>
        <_>
          16 4 4 2 2.</_></rects>
      <tilted>0</tilted></_>
    <_>
      <rects>
        <_>
          17 4 3 2 -1.</_>
        <_>
          17 5 3 1 2.</_></rects>
      <tilted>0</tilted></_>
    <_>
      <rects>
        <_>
          19 8 1 16 -1.</_>
        <_>
          19 16 1 8 2.</_></rects>
      <tilted>0</tilted></_>
    <_>
      <rects>
        <_>
          19 11 1 12 -1.</_>
        <_>
          19 15 1 4 3.</_></rects>
      <tilted>0</tilted></_>
    <_>
      <rects>
        <_>
          19 13 5 6 -1.</_>
        <_>
          19 15 5 2 3.</_></rects>
      <tilted>0</tilted></_>
    <_>
      <rects>
        <_>
          19 15 2 8 -1.</_>
        <_>
          19 19 2 4 2.</_></rects>
      <tilted>0</tilted></_>
    <_>
      <rects>
        <_>
          19 19 4 5 -1.</_>
        <_>
          21 19 2 5 2.</_></rects>
      <tilted>0</tilted></_>
    <_>
      <rects>
        <_>
          21 0 2 1 -1.</_>
        <_>
          22 0 1 1 2.</_></rects>
      <tilted>0</tilted></_>
    <_>
      <rects>
        <_>
          21 6 3 3 -1.</_>
        <_>
          21 7 3 1 3.</_></rects>
      <tilted>0</tilted></_>
    <_>
      <rects>
        <_>
          22 2 2 20 -1.</_>
        <_>
          22 2 1 10 2.</_>
        <_>
          23 12 1 10 2.</_></rects>
      <tilted>0</tilted></_>
    <_>
      <rects>
        <_>
          22 4 2 6 -1.</_>
        <_>
          22 4 1 3 2.</_>
        <_>
          23 7 1 3 2.</_></rects>
      <tilted>0</tilted></_></features></cascade>
</opencv_storage>
